<?xml version="1.0"?>
<opencv_storage>
<myfacedetector type_id="opencv-haar-classifier">
  <size>
    24 24</size>
  <stages>
    <_>
      <trees>
        <_>
          <_>
            <feature>
              <rects>
                <_>
                  0 0 4 3 -1.</_>
                <_>
                  2 0 2 3 2.</_></rects>
              <tilted>0</tilted></feature>
            <threshold>-3.2582469284534454e-003</threshold>
            <left_val>1.</left_val>
            <right_val>-1.0000009536743164</right_val></_></_></trees>
      <stage_threshold>1.</stage_threshold>
      <parent>-1</parent>
      <next>-1</next></_>
    <_>
      <trees>
        <_>
          <_>
            <feature>
              <rects>
                <_>
                  0 0 7 22 -1.</_>
                <_>
                  0 11 7 11 2.</_></rects>
              <tilted>0</tilted></feature>
            <threshold>-0.0918200165033340</threshold>
            <left_val>1.</left_val>
            <right_val>-1.0000009536743164</right_val></_></_></trees>
      <stage_threshold>1.</stage_threshold>
      <parent>0</parent>
      <next>-1</next></_>
    <_>
      <trees>
        <_>
          <_>
            <feature>
              <rects>
                <_>
                  0 22 14 2 -1.</_>
                <_>
                  7 22 7 2 2.</_></rects>
              <tilted>0</tilted></feature>
            <threshold>-0.0100330496206880</threshold>
            <left_val>1.</left_val>
            <right_val>-1.0000009536743164</right_val></_></_></trees>
      <stage_threshold>1.</stage_threshold>
      <parent>1</parent>
      <next>-1</next></_>
    <_>
      <trees>
        <_>
          <_>
            <feature>
              <rects>
                <_>
                  1 3 10 8 -1.</_>
                <_>
                  1 3 5 4 2.</_>
                <_>
                  6 7 5 4 2.</_></rects>
              <tilted>0</tilted></feature>
            <threshold>0.0234920699149370</threshold>
            <left_val>-1.</left_val>
            <right_val>1.0000009536743164</right_val></_></_></trees>
      <stage_threshold>1.0000009536743164</stage_threshold>
      <parent>2</parent>
      <next>-1</next></_>
    <_>
      <trees>
        <_>
          <_>
            <feature>
              <rects>
                <_>
                  0 2 10 22 -1.</_>
                <_>
                  5 2 5 22 2.</_></rects>
              <tilted>0</tilted></feature>
            <threshold>-0.0604484304785728</threshold>
            <left_val>1.</left_val>
            <right_val>-1.0000009536743164</right_val></_></_></trees>
      <stage_threshold>1.</stage_threshold>
      <parent>3</parent>
      <next>-1</next></_>
    <_>
      <trees>
        <_>
          <_>
            <feature>
              <rects>
                <_>
                  0 17 8 5 -1.</_>
                <_>
                  2 17 4 5 2.</_></rects>
              <tilted>0</tilted></feature>
            <threshold>-4.1411118581891060e-003</threshold>
            <left_val>1.</left_val>
            <right_val>-1.0000009536743164</right_val></_></_></trees>
      <stage_threshold>1.</stage_threshold>
      <parent>4</parent>
      <next>-1</next></_>
    <_>
      <trees>
        <_>
          <_>
            <feature>
              <rects>
                <_>
                  3 21 6 3 -1.</_>
                <_>
                  5 22 2 1 9.</_></rects>
              <tilted>0</tilted></feature>
            <threshold>-4.2526507750153542e-003</threshold>
            <left_val>1.</left_val>
            <right_val>-1.0000009536743164</right_val></_></_></trees>
      <stage_threshold>1.</stage_threshold>
      <parent>5</parent>
      <next>-1</next></_>
    <_>
      <trees>
        <_>
          <_>
            <feature>
              <rects>
                <_>
                  5 12 9 12 -1.</_>
                <_>
                  8 16 3 4 9.</_></rects>
              <tilted>0</tilted></feature>
            <threshold>-0.0220777504146099</threshold>
            <left_val>-1.</left_val>
            <right_val>1.0000009536743164</right_val></_></_></trees>
      <stage_threshold>1.0000009536743164</stage_threshold>
      <parent>6</parent>
      <next>-1</next></_>
    <_>
      <trees>
        <_>
          <_>
            <feature>
              <rects>
                <_>
                  0 1 14 15 -1.</_>
                <_>
                  0 6 14 5 3.</_></rects>
              <tilted>0</tilted></feature>
            <threshold>0.0466792397201061</threshold>
            <left_val>-1.</left_val>
            <right_val>1.0000009536743164</right_val></_></_></trees>
      <stage_threshold>1.0000009536743164</stage_threshold>
      <parent>7</parent>
      <next>-1</next></_>
    <_>
      <trees>
        <_>
          <_>
            <feature>
              <rects>
                <_>
                  3 0 2 14 -1.</_>
                <_>
                  3 0 1 7 2.</_>
                <_>
                  4 7 1 7 2.</_></rects>
              <tilted>0</tilted></feature>
            <threshold>6.8066478706896305e-004</threshold>
            <left_val>-1.</left_val>
            <right_val>1.0000009536743164</right_val></_></_></trees>
      <stage_threshold>1.0000009536743164</stage_threshold>
      <parent>8</parent>
      <next>-1</next></_></stages></myfacedetector>
</opencv_storage>
